{"learner":{"attributes":{"scikit_learn":"{\"_estimator_type\": \"classifier\"}"},"feature_names":[],"feature_types":[],"gradient_booster":{"model":{"gbtree_model_param":{"num_parallel_tree":"1","num_trees":"100"},"iteration_indptr":[0,1,2,3,4,5,6,7,8,9,10,11,12,13,14,15,16,17,18,19,20,21,22,23,24,25,26,27,28,29,30,31,32,33,34,35,36,37,38,39,40,41,42,43,44,45,46,47,48,49,50,51,52,53,54,55,56,57,58,59,60,61,62,63,64,65,66,67,68,69,70,71,72,73,74,75,76,77,78,79,80,81,82,83,84,85,86,87,88,89,90,91,92,93,94,95,96,97,98,99,100],"tree_info":[0,0,0,0,0,0,0,0,0,0,0,0,0,0,0,0,0,0,0,0,0,0,0,0,0,0,0,0,0,0,0,0,0,0,0,0,0,0,0,0,0,0,0,0,0,0,0,0,0,0,0,0,0,0,0,0,0,0,0,0,0,0,0,0,0,0,0,0,0,0,0,0,0,0,0,0,0,0,0,0,0,0,0,0,0,0,0,0,0,0,0,0,0,0,0,0,0,0,0,0],"trees":[{"base_weights":[3.2347046E-2,-1.58818E0,1.2578225E0,-2.3262873E0,2.6775372E-1,-5.121688E-2,1.3224326E0,-8.0245095E-1,6.791489E-2,7.213903E-1,-3.3659878E-1,1.3882732E0,4.0005362E-1,-4.632514E-3,3.310686E-1,4.277357E-1,9.147408E-2,2.3416503E-1,-5.121688E-2],"categories":[],"categories_nodes":[],"categories_segments":[],"categories_sizes":[],"default_left":[0,0,0,0,0,0,0,0,0,0,0,0,0,0,0,0,0,0,0],"id":0,"left_children":[1,3,5,7,9,-1,11,-1,-1,13,-1,15,17,-1,-1,-1,-1,-1,-1],"loss_changes":[9.812626E1,2.9780739E1,2.8212166E0,1.4246704E1,5.192986E0,0E0,1.0854034E0,0E0,0E0,1.6645939E0,0E0,5.736389E-1,8.292913E-1,0E0,0E0,0E0,0E0,0E0,0E0],"parents":[2147483647,0,0,1,1,2,2,3,3,4,4,6,6,9,9,11,11,12,12],"right_children":[2,4,6,8,10,-1,12,-1,-1,14,-1,16,18,-1,-1,-1,-1,-1,-1],"split_conditions":[-1.0046945E-1,-1.80862E-1,-8.6632915E-2,6.976466E-2,1.9819777E-2,-5.121688E-2,1.1397665E0,-8.0245095E-1,6.791489E-2,3.2337046E-1,-3.3659878E-1,1.4114873E-1,-1.4171258E-1,-4.632514E-3,3.310686E-1,4.277357E-1,9.147408E-2,2.3416503E-1,-5.121688E-2],"split_indices":[37,22,16,25,26,0,39,0,0,8,0,25,0,0,0,0,0,0,0],"split_type":[0,0,0,0,0,0,0,0,0,0,0,0,0,0,0,0,0,0,0],"sum_hessian":[4.7405174E1,2.0285004E1,2.7120169E1,1.4331797E1,5.9532075E0,1.1024458E0,2.6017723E1,1.2567883E1,1.7639134E0,4.850762E0,1.1024458E0,2.381283E1,2.2048917E0,1.9844025E0,2.8663592E0,2.2710384E1,1.1024458E0,1.1024458E0,1.1024458E0],"tree_param":{"num_deleted":"0","num_feature":"41","num_nodes":"19","size_leaf_vector":"1"}},{"base_weights":[6.1544012E-2,-1.1495711E0,1.0006185E0,4.394612E-2,-1.7277775E0,-1.6046731E-1,1.1192771E0,-3.505273E-1,8.3736485E-1,-5.414909E-1,-1.7853126E-1,1.2162713E0,-4.653437E-2,-5.1094983E-2,3.388616E-1,1.2511251E0,9.7461924E-2,8.686328E-2,3.853105E-1],"categories":[],"categories_nodes":[],"categories_segments":[],"categories_sizes":[],"default_left":[0,0,0,0,0,0,0,0,0,0,0,0,0,0,0,0,0,0,0],"id":1,"left_children":[1,3,5,7,9,-1,11,-1,13,-1,-1,15,-1,-1,-1,17,-1,-1,-1],"loss_changes":[5.3267647E1,1.4208288E1,5.3989124E0,8.345225E0,1.3420868E-1,0E0,3.2515793E0,0E0,1.7267647E0,0E0,0E0,3.1246567E-1,0E0,0E0,0E0,3.2875824E-1,0E0,0E0,0E0],"parents":[2147483647,0,0,1,1,2,2,3,3,4,4,6,6,8,8,11,11,15,15],"right_children":[2,4,6,8,10,-1,12,-1,14,-1,-1,16,-1,-1,-1,18,-1,-1,-1],"split_conditions":[-1.79938E-1,-1.4171258E-1,-5.4130477E-1,-1.0634933E-1,3.2337046E-1,-1.6046731E-1,9.855819E-1,-3.505273E-1,-9.0501785E-1,-5.414909E-1,-1.7853126E-1,1.326625E-1,-4.653437E-2,-5.1094983E-2,3.388616E-1,-9.4665456E-1,9.7461924E-2,8.686328E-2,3.853105E-1],"split_indices":[36,0,37,25,8,0,2,0,39,0,0,25,0,0,0,23,0,0,0],"split_type":[0,0,0,0,0,0,0,0,0,0,0,0,0,0,0,0,0,0,0],"sum_hessian":[4.4824425E1,1.9478737E1,2.5345686E1,6.6584826E0,1.2820254E1,1.5664991E0,2.3779188E1,2.4468968E0,4.211586E0,1.1446614E1,1.3736396E0,2.2139736E1,1.6394517E0,1.0404023E0,3.1711833E0,2.0918274E1,1.2214622E0,1.0234729E0,1.98948E1],"tree_param":{"num_deleted":"0","num_feature":"41","num_nodes":"19","size_leaf_vector":"1"}},{"base_weights":[5.5689517E-2,-8.3901775E-1,9.7795534E-1,-1.1797577E0,2.4933001E-1,2.1366097E-1,1.1223369E0,1.3025533E-1,-1.3392199E0,-2.6454312E-1,7.178338E-1,-1.3100694E-1,2.4603355E-1,6.944397E-2,3.5076034E-1,-4.269382E-1,-4.979544E-2,3.0122897E-1,-5.0234474E-2],"categories":[],"categories_nodes":[],"categories_segments":[],"categories_sizes":[],"default_left":[0,0,0,0,0,0,0,0,0,0,0,0,0,0,0,0,0,0,0],"id":2,"left_children":[1,3,5,7,9,11,13,-1,15,-1,17,-1,-1,-1,-1,-1,-1,-1,-1],"loss_changes":[3.462116E1,8.204313E0,2.0369873E0,4.8070736E0,3.7656636E0,2.1382716E0,4.440632E-1,0E0,1.2588692E0,0E0,1.3671482E0,0E0,0E0,0E0,0E0,0E0,0E0,0E0,0E0],"parents":[2147483647,0,0,1,1,2,2,3,3,4,4,5,5,6,6,8,8,10,10],"right_children":[2,4,6,8,10,12,14,-1,16,-1,18,-1,-1,-1,-1,-1,-1,-1,-1],"split_conditions":[-1.0046945E-1,-1.3240303E-1,-7.165237E-1,-7.677716E-1,-2.2653127E-1,5.607835E-1,-9.173372E-1,1.3025533E-1,1.1021217E0,-2.6454312E-1,-1.6135873E-1,-1.3100694E-1,2.4603355E-1,6.944397E-2,3.5076034E-1,-4.269382E-1,-4.979544E-2,3.0122897E-1,-5.0234474E-2],"split_indices":[37,22,40,0,35,37,21,0,14,0,17,0,0,0,0,0,0,0,0],"split_type":[0,0,0,0,0,0,0,0,0,0,0,0,0,0,0,0,0,0,0],"sum_hessian":[3.9962624E1,2.033019E1,1.9632433E1,1.5418864E1,4.9113274E0,3.5134664E0,1.6118967E1,1.2315327E0,1.4187331E1,1.1800556E0,3.731272E0,1.8304447E0,1.6830218E0,1.1024054E0,1.50165615E1,1.3041628E1,1.1457033E0,2.7181325E0,1.0131395E0],"tree_param":{"num_deleted":"0","num_feature":"41","num_nodes":"19","size_leaf_vector":"1"}},{"base_weights":[5.9178587E-2,-8.9084905E-1,7.0166713E-1,-1.4433396E-1,-3.8533053E-1,-3.2864588E-1,8.847215E-1,-3.085698E-1,4.3839222E-1,-2.6704848E-1,1.5413411E-1,1.0062907E0,-4.5360435E-2,-1.5745728E-1,2.9309288E-1,3.239192E-1,3.3590883E-1,2.191657E-1,-8.741286E-2],"categories":[],"categories_nodes":[],"categories_segments":[],"categories_sizes":[],"default_left":[0,0,0,0,0,0,0,0,0,0,0,0,0,0,0,0,0,0,0],"id":3,"left_children":[1,3,5,7,-1,9,11,-1,13,-1,-1,15,-1,-1,-1,17,-1,-1,-1],"loss_changes":[2.2416567E1,4.1760626E0,4.413128E0,3.6718729E0,0E0,2.3620954E0,2.5236197E0,0E0,2.831294E0,0E0,0E0,9.515743E-1,0E0,0E0,0E0,1.1704689E0,0E0,0E0,0E0],"parents":[2147483647,0,0,1,1,2,2,3,3,5,5,6,6,8,8,11,11,15,15],"right_children":[2,4,6,8,-1,10,12,-1,14,-1,-1,16,-1,-1,-1,18,-1,-1,-1],"split_conditions":[-4.0750667E-1,6.697375E-2,-5.4130477E-1,-8.5170394E-1,-3.8533053E-1,3.2337046E-1,9.855819E-1,-3.085698E-1,-1.4017323E-1,-2.6704848E-1,1.5413411E-1,-9.5181626E-1,-4.5360435E-2,-1.5745728E-1,2.9309288E-1,-3.977148E-2,3.3590883E-1,2.191657E-1,-8.741286E-2],"split_indices":[36,0,37,20,0,8,2,0,25,0,0,4,0,0,0,19,0,0,0],"split_type":[0,0,0,0,0,0,0,0,0,0,0,0,0,0,0,0,0,0,0],"sum_hessian":[3.47014E1,1.3844062E1,2.085734E1,5.2510686E0,8.592994E0,3.0266483E0,1.7830692E1,1.7819835E0,3.469085E0,1.7821196E0,1.2445287E0,1.5983569E1,1.8471221E0,1.2532145E0,2.2158704E0,2.82736E0,1.315621E1,1.5895482E0,1.2378117E0],"tree_param":{"num_deleted":"0","num_feature":"41","num_nodes":"19","size_leaf_vector":"1"}},{"base_weights":[4.8886728E-2,-6.081E-1,8.123756E-1,-8.914884E-1,2.4496159E-1,1.2723054E-1,9.719355E-1,-1.0338413E0,5.2573834E-2,-2.4324207E-1,2.3881024E-1,1.6614245E-1,-1.6381973E-1,4.4794768E-2,3.124801E-1,-5.68045E-2,-3.4674245E-1],"categories":[],"categories_nodes":[],"categories_segments":[],"categories_sizes":[],"default_left":[0,0,0,0,0,0,0,0,0,0,0,0,0,0,0,0,0],"id":4,"left_children":[1,3,5,7,9,11,13,15,-1,-1,-1,-1,-1,-1,-1,-1,-1],"loss_changes":[1.5933498E1,4.3561316E0,1.4794741E0,2.164896E0,3.5850234E0,1.4284742E0,5.1747894E-1,9.831972E-1,0E0,0E0,0E0,0E0,0E0,0E0,0E0,0E0,0E0],"parents":[2147483647,0,0,1,1,2,2,3,3,4,4,5,5,6,6,7,7],"right_children":[2,4,6,8,10,12,14,16,-1,-1,-1,-1,-1,-1,-1,-1,-1],"split_conditions":[-1.0046945E-1,3.2337046E-1,-7.165237E-1,2.7257648E-1,-7.6172245E-1,-3.977148E-2,-1.0942818E0,3.5716817E-1,5.2573834E-2,-2.4324207E-1,2.3881024E-1,1.6614245E-1,-1.6381973E-1,4.4794768E-2,3.124801E-1,-5.68045E-2,-3.4674245E-1],"split_indices":[37,8,40,22,37,19,20,9,0,0,0,0,0,0,0,0,0],"split_type":[0,0,0,0,0,0,0,0,0,0,0,0,0,0,0,0,0],"sum_hessian":[2.978036E1,1.6115984E1,1.3664375E1,1.2063443E1,4.0525403E0,2.9206371E0,1.0743738E1,1.0670349E1,1.3930944E0,1.228192E0,2.8243484E0,1.8965285E0,1.0241086E0,1.0842289E0,9.65951E0,1.6687123E0,9.0016365E0],"tree_param":{"num_deleted":"0","num_feature":"41","num_nodes":"17","size_leaf_vector":"1"}},{"base_weights":[4.421679E-2,-6.8345994E-1,5.835721E-1,-9.690283E-1,-4.296343E-2,2.9355755E-1,1.220338E-1,-5.000233E-2,-3.199832E-1,-2.7593198E-1,4.8599088E-1,-5.417575E-1,7.175826E-1,2.4012715E-1,-3.9141875E-2,-3.072741E-1,1.11021705E-1,3.4977224E-2,2.5346032E-1],"categories":[],"categories_nodes":[],"categories_segments":[],"categories_sizes":[],"default_left":[0,0,0,0,0,0,0,0,0,0,0,0,0,0,0,0,0,0,0],"id":5,"left_children":[1,3,5,7,9,-1,11,-1,-1,-1,13,15,17,-1,-1,-1,-1,-1,-1],"loss_changes":[1.08147745E1,2.1089358E0,2.7572746E0,4.55297E-1,2.613895E0,0E0,3.7172098E0,0E0,0E0,0E0,7.961205E-1,2.3814719E0,2.7389622E-1,0E0,0E0,0E0,0E0,0E0,0E0],"parents":[2147483647,0,0,1,1,2,2,3,3,4,4,6,6,10,10,11,11,12,12],"right_children":[2,4,6,8,10,-1,12,-1,-1,-1,14,16,18,-1,-1,-1,-1,-1,-1],"split_conditions":[-3.2088712E-1,-3.1417474E-1,3.5716817E-1,-1.1706989E0,-2.8282234E-1,2.9355755E-1,3.403659E-1,-5.000233E-2,-3.199832E-1,-2.7593198E-1,5.7752705E-1,-7.457769E-2,-9.5181626E-1,2.4012715E-1,-3.9141875E-2,-3.072741E-1,1.11021705E-1,3.4977224E-2,2.5346032E-1],"split_indices":[37,22,9,3,1,0,37,0,0,0,32,16,4,0,0,0,0,0,0],"split_type":[0,0,0,0,0,0,0,0,0,0,0,0,0,0,0,0,0,0,0],"sum_hessian":[2.5538992E1,1.0757808E1,1.4781185E1,7.0856876E0,3.6721199E0,7.3615417E0,7.4196434E0,1.0619589E0,6.023729E0,1.1037161E0,2.5684037E0,3.5515037E0,3.8681397E0,1.5032471E0,1.0651565E0,2.241918E0,1.3095855E0,1.010924E0,2.857216E0],"tree_param":{"num_deleted":"0","num_feature":"41","num_nodes":"19","size_leaf_vector":"1"}},{"base_weights":[3.688464E-2,-6.614826E-1,5.270237E-1,-5.9353296E-2,-2.9476938E-1,1.5698539E-1,2.8270423E-1,-2.0908807E-1,3.8490185E-1,2.4951272E-1,-3.3177298E-1,2.1393025E-1,-4.357597E-2,-6.1102813E-1,1.19989775E-1,-3.2550704E-1,5.147406E-2],"categories":[],"categories_nodes":[],"categories_segments":[],"categories_sizes":[],"default_left":[0,0,0,0,0,0,0,0,0,0,0,0,0,0,0,0,0],"id":6,"left_children":[1,3,5,7,-1,9,-1,-1,11,-1,13,-1,-1,15,-1,-1,-1],"loss_changes":[8.185263E0,1.8527808E0,2.0050888E0,1.5435505E0,0E0,3.1147974E0,0E0,0E0,6.773562E-1,0E0,1.4105735E0,0E0,0E0,1.8651942E0,0E0,0E0,0E0],"parents":[2147483647,0,0,1,1,2,2,3,3,5,5,8,8,10,10,13,13],"right_children":[2,4,6,8,-1,10,-1,-1,12,-1,14,-1,-1,16,-1,-1,-1],"split_conditions":[-4.0750667E-1,6.697375E-2,5.02768E-1,-8.5170394E-1,-2.9476938E-1,-4.08185E-1,2.8270423E-1,-2.0908807E-1,-1.1756329E-1,2.4951272E-1,1.0525413E0,2.1393025E-1,-4.357597E-2,-1.7538014E-1,1.19989775E-1,-3.2550704E-1,5.147406E-2],"split_indices":[36,0,36,20,0,10,0,0,26,0,27,0,0,13,0,0,0],"split_type":[0,0,0,0,0,0,0,0,0,0,0,0,0,0,0,0,0],"sum_hessian":[2.1894287E1,8.88502E0,1.3009268E1,3.5021834E0,5.3828363E0,7.6084237E0,5.4008446E0,1.204551E0,2.2976325E0,2.901403E0,4.7070208E0,1.2059777E0,1.0916548E0,3.5262532E0,1.1807674E0,1.9554775E0,1.5707759E0],"tree_param":{"num_deleted":"0","num_feature":"41","num_nodes":"17","size_leaf_vector":"1"}},{"base_weights":[3.595649E-2,-8.2491916E-1,3.7231207E-1,-2.7723694E-1,-5.25109E-2,-3.848295E-3,2.597418E-1,-3.9508075E-1,6.2030387E-1,1.1251673E-1,-6.56653E-1,2.2171992E-1,4.072006E-2,-1.0378014E-2,-8.078732E-1,-2.7930933E-1,-8.024898E-2],"categories":[],"categories_nodes":[],"categories_segments":[],"categories_sizes":[],"default_left":[0,0,0,0,0,0,0,0,0,0,0,0,0,0,0,0,0],"id":7,"left_children":[1,3,5,-1,-1,7,-1,9,11,-1,13,-1,-1,-1,15,-1,-1],"loss_changes":[6.048933E0,2.1745825E-1,2.7780702E0,0E0,0E0,2.559405E0,0E0,1.5429463E0,1.3223171E-1,0E0,4.582312E-1,0E0,0E0,0E0,2.4673939E-2,0E0,0E0],"parents":[2147483647,0,0,1,1,2,2,5,5,7,7,8,8,10,10,14,14],"right_children":[2,4,6,-1,-1,8,-1,10,12,-1,14,-1,-1,-1,16,-1,-1],"split_conditions":[-7.6172245E-1,7.0558393E-1,3.2337046E-1,-2.7723694E-1,-5.25109E-2,2.7519932E-1,2.597418E-1,-7.4310726E-1,3.973746E-1,1.1251673E-1,-4.2845288E-1,2.2171992E-1,4.072006E-2,-1.0378014E-2,-7.771973E-2,-2.7930933E-1,-8.024898E-2],"split_indices":[37,3,8,0,0,36,0,10,26,0,24,0,0,0,16,0,0],"split_type":[0,0,0,0,0,0,0,0,0,0,0,0,0,0,0,0,0],"sum_hessian":[1.8829391E1,4.8819366E0,1.3947454E1,3.869307E0,1.0126296E0,8.477655E0,5.469799E0,5.4367757E0,3.0408797E0,1.2684065E0,4.1683693E0,2.0204835E0,1.0203961E0,1.0554461E0,3.112923E0,1.9463892E0,1.1665337E0],"tree_param":{"num_deleted":"0","num_feature":"41","num_nodes":"17","size_leaf_vector":"1"}},{"base_weights":[2.6934117E-2,-4.0279385E-1,5.8924E-1,-2.7450073E-1,-7.61409E-2,2.4123472E-1,1.5471733E-2,-5.962083E-1,3.5402846E-1,-1.4485681E-1,1.6308656E-1,-2.164424E-1,-3.963227E-2,-7.589167E-2,2.2126397E-1],"categories":[],"categories_nodes":[],"categories_segments":[],"categories_sizes":[],"default_left":[0,0,0,0,0,0,0,0,0,0,0,0,0,0,0],"id":8,"left_children":[1,3,5,-1,7,-1,9,11,13,-1,-1,-1,-1,-1,-1],"loss_changes":[4.438805E0,1.678685E0,9.6621037E-1,0E0,1.8825173E0,0E0,1.10007E0,1.22976065E-1,1.2845509E0,0E0,0E0,0E0,0E0,0E0,0E0],"parents":[2147483647,0,0,1,1,2,2,4,4,6,6,7,7,8,8],"right_children":[2,4,6,-1,8,-1,10,12,14,-1,-1,-1,-1,-1,-1],"split_conditions":[-1.0046945E-1,-1.4029617E0,2.756601E-1,-2.7450073E-1,-7.6172245E-1,2.4123472E-1,5.607835E-1,6.738955E-1,-8.657801E-1,-1.4485681E-1,1.6308656E-1,-2.164424E-1,-3.963227E-2,-7.589167E-2,2.2126397E-1],"split_indices":[37,35,0,0,37,0,37,2,40,0,0,0,0,0,0],"split_type":[0,0,0,0,0,0,0,0,0,0,0,0,0,0,0],"sum_hessian":[1.6387386E1,9.449512E0,6.937874E0,2.9782765E0,6.4712353E0,4.755485E0,2.182389E0,2.7547748E0,3.7164605E0,1.1670228E0,1.0153662E0,1.7325689E0,1.022206E0,1.5707686E0,2.1456919E0],"tree_param":{"num_deleted":"0","num_feature":"41","num_nodes":"15","size_leaf_vector":"1"}},{"base_weights":[1.5903994E-2,-5.1144E-1,3.994268E-1,-8.768288E-3,-2.408025E-1,5.919721E-1,-1.8919264E-1,-1.1231132E-1,1.2983637E-1,7.5803626E-1,-6.843794E-2,-1.1020636E-1,2.5476987E-2,2.605859E-1,3.9738018E-2],"categories":[],"categories_nodes":[],"categories_segments":[],"categories_sizes":[],"default_left":[0,0,0,0,0,0,0,0,0,0,0,0,0,0,0],"id":9,"left_children":[1,3,5,7,-1,9,11,-1,-1,13,-1,-1,-1,-1,-1],"loss_changes":[3.3122666E0,1.0043932E0,1.1839579E0,7.34386E-1,0E0,1.1765232E0,1.8206063E-1,0E0,0E0,3.2488537E-1,0E0,0E0,0E0,0E0,0E0],"parents":[2147483647,0,0,1,1,2,2,3,3,5,5,6,6,9,9],"right_children":[2,4,6,8,-1,10,12,-1,-1,14,-1,-1,-1,-1,-1],"split_conditions":[-4.0750667E-1,6.697375E-2,8.7203944E-1,-3.1417474E-1,-2.408025E-1,7.5862825E-1,-5.485295E-1,-1.1231132E-1,1.2983637E-1,2E0,-6.843794E-2,-1.1020636E-1,2.5476987E-2,2.605859E-1,3.9738018E-2],"split_indices":[36,0,10,22,0,24,23,0,0,33,0,0,0,0,0],"split_type":[0,0,0,0,0,0,0,0,0,0,0,0,0,0,0],"sum_hessian":[1.4367159E1,5.908894E0,8.458264E0,2.5454876E0,3.3634064E0,6.369138E0,2.0891263E0,1.4757452E0,1.0697426E0,5.3595448E0,1.0095932E0,1.0600215E0,1.0291048E0,4.224302E0,1.1352428E0],"tree_param":{"num_deleted":"0","num_feature":"41","num_nodes":"15","size_leaf_vector":"1"}},{"base_weights":[1.0571966E-2,-2.3489286E-1,2.2928548E-1,3.8708845E-1,-5.737887E-1,-6.0459558E-2,2.1027963E-1,-2.75406E-1,2.4783933E-1,1.4005442E-1,-2.8551035E-2],"categories":[],"categories_nodes":[],"categories_segments":[],"categories_sizes":[],"default_left":[0,0,0,0,0,0,0,0,0,0,0],"id":10,"left_children":[1,3,-1,5,7,-1,-1,-1,9,-1,-1],"loss_changes":[2.72902E0,2.5744586E0,0E0,9.786939E-1,2.3845787E0,0E0,0E0,0E0,2.7274644E-1,0E0,0E0],"parents":[2147483647,0,0,1,1,3,3,4,4,8,8],"right_children":[2,4,-1,6,8,-1,-1,-1,10,-1,-1],"split_conditions":[5.02768E-1,3.5716817E-1,2.2928548E-1,-3.2088712E-1,-1.3240303E-1,-6.0459558E-2,2.1027963E-1,-2.75406E-1,-3.52648E-1,1.4005442E-1,-2.8551035E-2],"split_indices":[36,9,0,37,22,0,0,0,26,0,0],"split_type":[0,0,0,0,0,0,0,0,0,0,0],"sum_hessian":[1.2780309E1,1.0159858E1,2.6204507E0,3.5331686E0,6.6266894E0,1.3531557E0,2.180013E0,4.587416E0,2.0392733E0,1.0242577E0,1.0150155E0],"tree_param":{"num_deleted":"0","num_feature":"41","num_nodes":"11","size_leaf_vector":"1"}},{"base_weights":[2.542489E-2,-2.0706767E-1,2.1840024E-1,-4.8087537E-1,3.2216254E-1,5.676336E-2,-2.372205E-1,1.8297046E-1,-7.507041E-3],"categories":[],"categories_nodes":[],"categories_segments":[],"categories_sizes":[],"default_left":[0,0,0,0,0,0,0,0,0],"id":11,"left_children":[1,3,-1,5,7,-1,-1,-1,-1],"loss_changes":[2.1299038E0,1.5869616E0,0E0,1.5852038E0,4.1170037E-1,0E0,0E0,0E0,0E0],"parents":[2147483647,0,0,1,1,3,3,4,4],"right_children":[2,4,-1,6,8,-1,-1,-1,-1],"split_conditions":[5.607835E-1,-1.3240303E-1,2.1840024E-1,3.5716817E-1,-3.6193255E-1,5.676336E-2,-2.372205E-1,1.8297046E-1,-7.507041E-3],"split_indices":[37,22,0,9,26,0,0,0,0],"split_type":[0,0,0,0,0,0,0,0,0],"sum_hessian":[1.111653E1,8.882466E0,2.2340636E0,5.9140725E0,2.9683938E0,1.9931508E0,3.9209216E0,1.2093858E0,1.7590082E0],"tree_param":{"num_deleted":"0","num_feature":"41","num_nodes":"9","size_leaf_vector":"1"}},{"base_weights":[3.876834E-2,-1.7546624E-1,2.7844778E-1,-3.2987658E-2,2.018406E-1,2.944519E-1,-1.3435498E-1,-2.9370533E-2,1.6759956E-1],"categories":[],"categories_nodes":[],"categories_segments":[],"categories_sizes":[],"default_left":[0,0,0,0,0,0,0,0,0],"id":12,"left_children":[1,-1,3,5,-1,7,-1,-1,-1],"loss_changes":[1.8065103E0,0E0,1.0809578E0,9.156842E-1,0E0,4.5153615E-1,0E0,0E0,0E0],"parents":[2147483647,0,0,2,2,3,3,5,5],"right_children":[2,-1,4,6,-1,8,-1,-1,-1],"split_conditions":[-7.6172245E-1,-1.7546624E-1,3.2337046E-1,-2.2855014E-1,2.018406E-1,-2.0461911E-1,-1.3435498E-1,-2.9370533E-2,1.6759956E-1],"split_indices":[37,0,8,21,0,40,0,0,0],"split_type":[0,0,0,0,0,0,0,0,0],"sum_hessian":[9.99597E0,2.3752308E0,7.620739E0,4.770029E0,2.8507102E0,2.8281157E0,1.9419132E0,1.3913848E0,1.4367307E0],"tree_param":{"num_deleted":"0","num_feature":"41","num_nodes":"9","size_leaf_vector":"1"}},{"base_weights":[3.5490174E-2,-1.7223884E-1,1.9804315E-1,3.600109E-1,-4.1404733E-1,2.9410962E-2,1.3184667E-1,-6.324618E-1,2.9260559E-2,-6.103804E-2,-2.321227E-1],"categories":[],"categories_nodes":[],"categories_segments":[],"categories_sizes":[],"default_left":[0,0,0,0,0,0,0,0,0,0,0],"id":13,"left_children":[1,3,-1,5,7,-1,-1,9,-1,-1,-1],"loss_changes":[1.4257206E0,1.2277101E0,0E0,2.2563934E-2,7.575755E-1,0E0,0E0,1.1520445E-1,0E0,0E0,0E0],"parents":[2147483647,0,0,1,1,3,3,4,4,7,7],"right_children":[2,4,-1,6,8,-1,-1,10,-1,-1,-1],"split_conditions":[5.02768E-1,-4.08185E-1,1.9804315E-1,4.1472696E-2,-1.7538014E-1,2.9410962E-2,1.3184667E-1,1.0367078E0,2.9260559E-2,-6.103804E-2,-2.321227E-1],"split_indices":[36,10,0,20,13,0,0,34,0,0,0],"split_type":[0,0,0,0,0,0,0,0,0,0,0],"sum_hessian":[9.1112175E0,7.3809443E0,1.7302735E0,2.1530325E0,5.227912E0,1.0210303E0,1.1320021E0,3.4981365E0,1.7297752E0,1.4711301E0,2.0270064E0],"tree_param":{"num_deleted":"0","num_feature":"41","num_nodes":"11","size_leaf_vector":"1"}},{"base_weights":[3.6910985E-2,-1.5602353E-1,1.8823974E-1,-4.0903193E-1,2.8443432E-1,4.6127375E-2,-2.1101758E-1,-2.2450361E-2,1.4681245E-1],"categories":[],"categories_nodes":[],"categories_segments":[],"categories_sizes":[],"default_left":[0,0,0,0,0,0,0,0,0],"id":14,"left_children":[1,3,-1,5,7,-1,-1,-1,-1],"loss_changes":[1.1689962E0,9.952227E-1,0E0,1.0059409E0,2.9191026E-1,0E0,0E0,0E0,0E0],"parents":[2147483647,0,0,1,1,3,3,4,4],"right_children":[2,4,-1,6,8,-1,-1,-1,-1],"split_conditions":[5.607835E-1,-1.80862E-1,1.8823974E-1,3.5716817E-1,-1.8885759E-1,4.6127375E-2,-2.1101758E-1,-2.2450361E-2,1.4681245E-1],"split_indices":[37,22,0,9,2,0,0,0,0],"split_type":[0,0,0,0,0,0,0,0,0],"sum_hessian":[8.400665E0,6.8866086E0,1.5140563E0,4.419374E0,2.4672348E0,1.6817235E0,2.7376504E0,1.1267846E0,1.3404502E0],"tree_param":{"num_deleted":"0","num_feature":"41","num_nodes":"9","size_leaf_vector":"1"}},{"base_weights":[4.4420548E-2,-3.2579204E-1,3.451145E-1,-1.758182E-1,8.4011415E-3,1.8335454E-1,2.68806E-2,-6.310075E-2,8.532614E-2],"categories":[],"categories_nodes":[],"categories_segments":[],"categories_sizes":[],"default_left":[0,0,0,0,0,0,0,0,0],"id":15,"left_children":[1,3,5,-1,-1,-1,7,-1,-1],"loss_changes":[1.0767721E0,4.2129028E-1,4.2943108E-1,0E0,0E0,0E0,2.7021587E-1,0E0,0E0],"parents":[2147483647,0,0,1,1,2,2,6,6],"right_children":[2,4,6,-1,-1,-1,8,-1,-1],"split_conditions":[-3.2088712E-1,-1.8885759E-1,3.5716817E-1,-1.758182E-1,8.4011415E-3,1.8335454E-1,-2.0461911E-1,-6.310075E-2,8.532614E-2],"split_indices":[37,2,9,0,0,0,40,0,0],"split_type":[0,0,0,0,0,0,0,0,0],"sum_hessian":[7.6626897E0,3.3969355E0,4.265754E0,1.5789173E0,1.8180182E0,1.8219365E0,2.4438179E0,1.3675108E0,1.076307E0],"tree_param":{"num_deleted":"0","num_feature":"41","num_nodes":"9","size_leaf_vector":"1"}},{"base_weights":[3.8757134E-2,-1.3676001E-1,2.3639132E-1,-6.2763885E-2,4.1371554E-1,5.792465E-1,-3.7046712E-2,1.9891676E-1,4.9685694E-2],"categories":[],"categories_nodes":[],"categories_segments":[],"categories_sizes":[],"default_left":[0,0,0,0,0,0,0,0,0],"id":16,"left_children":[1,-1,3,-1,5,7,-1,-1,-1],"loss_changes":[9.101677E-1,0E0,6.0201514E-1,0E0,5.163578E-1,2.8839827E-2,0E0,0E0,0E0],"parents":[2147483647,0,0,2,2,4,4,5,5],"right_children":[2,-1,4,-1,6,8,-1,-1,-1],"split_conditions":[-7.6172245E-1,-1.3676001E-1,-1.4029617E0,-6.2763885E-2,3.2822466E-1,-3.075238E-1,-3.7046712E-2,1.9891676E-1,4.9685694E-2],"split_indices":[37,0,35,0,26,14,0,0,0],"split_type":[0,0,0,0,0,0,0,0,0],"sum_hessian":[7.2083597E0,1.6849004E0,5.5234594E0,1.5211287E0,4.002331E0,2.9997463E0,1.0025842E0,1.9929152E0,1.0068313E0],"tree_param":{"num_deleted":"0","num_feature":"41","num_nodes":"9","size_leaf_vector":"1"}},{"base_weights":[3.2749522E-2,-1.4343302E-1,1.6656633E-1,9.353759E-2,-3.4458476E-1,-5.009812E-1,2.747869E-2,5.4592635E-3,-2.1296304E-1],"categories":[],"categories_nodes":[],"categories_segments":[],"categories_sizes":[],"default_left":[0,0,0,0,0,0,0,0,0],"id":17,"left_children":[1,3,-1,-1,5,7,-1,-1,-1],"loss_changes":[7.9479396E-1,7.1222675E-1,0E0,0E0,3.907699E-1,4.3327677E-1,0E0,0E0,0E0],"parents":[2147483647,0,0,1,1,4,4,5,5],"right_children":[2,4,-1,-1,6,8,-1,-1,-1],"split_conditions":[5.02768E-1,-3.503989E-1,1.6656633E-1,9.353759E-2,-1.3240303E-1,3.5716817E-1,2.747869E-2,5.4592635E-3,-2.1296304E-1],"split_indices":[36,0,0,0,22,9,0,0,0],"split_type":[0,0,0,0,0,0,0,0,0],"sum_hessian":[6.769191E0,5.6047025E0,1.1644886E0,1.5490423E0,4.05566E0,2.8759115E0,1.1797484E0,1.0870639E0,1.7888477E0],"tree_param":{"num_deleted":"0","num_feature":"41","num_nodes":"9","size_leaf_vector":"1"}},{"base_weights":[3.3673763E-2,-2.1028346E-1,3.8210934E-1,-1.8802218E-1,1.06886074E-1,1.7774433E-2,1.6224682E-1,1.02922104E-1,-6.891479E-2],"categories":[],"categories_nodes":[],"categories_segments":[],"categories_sizes":[],"default_left":[0,0,0,0,0,0,0,0,0],"id":18,"left_children":[1,3,5,-1,7,-1,-1,-1,-1],"loss_changes":[6.9584095E-1,7.1473724E-1,1.3894504E-1,0E0,3.680438E-1,0E0,0E0,0E0,0E0],"parents":[2147483647,0,0,1,1,2,2,4,4],"right_children":[2,4,6,-1,8,-1,-1,-1,-1],"split_conditions":[-1.0046945E-1,-1.4029617E0,-2.0461911E-1,-1.8802218E-1,8.6008954E-1,1.7774433E-2,1.6224682E-1,1.02922104E-1,-6.891479E-2],"split_indices":[37,35,40,0,34,0,0,0,0],"split_type":[0,0,0,0,0,0,0,0,0],"sum_hessian":[6.2407675E0,3.903926E0,2.3368418E0,1.2658147E0,2.638111E0,1.2227588E0,1.114083E0,1.5389978E0,1.0991133E0],"tree_param":{"num_deleted":"0","num_feature":"41","num_nodes":"9","size_leaf_vector":"1"}},{"base_weights":[2.8629038E-2,2.3301882E-1,-3.0676407E-1,-4.7616813E-2,4.7099045E-1,-1.13680884E-1,-2.4474334E-2,4.6858445E-2,1.6717759E-1],"categories":[],"categories_nodes":[],"categories_segments":[],"categories_sizes":[],"default_left":[0,0,0,0,0,0,0,0,0],"id":19,"left_children":[1,3,5,-1,7,-1,-1,-1,-1],"loss_changes":[5.3820384E-1,5.221075E-1,1.79995E-2,0E0,8.739233E-4,0E0,0E0,0E0,0E0],"parents":[2147483647,0,0,1,1,2,2,4,4],"right_children":[2,4,6,-1,8,-1,-1,-1,-1],"split_conditions":[4.2730078E-2,-7.8456074E-2,-5.4130477E-1,-4.7616813E-2,-2.0187874E-1,-1.13680884E-1,-2.4474334E-2,4.6858445E-2,1.6717759E-1],"split_indices":[15,16,37,0,15,0,0,0,0],"split_type":[0,0,0,0,0,0,0,0,0],"sum_hessian":[5.8083987E0,3.7986963E0,2.0097027E0,1.5613948E0,2.2373013E0,1.0048504E0,1.0048522E0,1.0857897E0,1.1515118E0],"tree_param":{"num_deleted":"0","num_feature":"41","num_nodes":"9","size_leaf_vector":"1"}},{"base_weights":[2.6291214E-2,-1.9355345E-1,3.3590975E-1,-1.6857693E-1,8.200712E-2,1.8195411E-2,1.3230024E-1,-5.638827E-2,8.75904E-2],"categories":[],"categories_nodes":[],"categories_segments":[],"categories_sizes":[],"default_left":[0,0,0,0,0,0,0,0,0],"id":20,"left_children":[1,3,5,-1,7,-1,-1,-1,-1],"loss_changes":[5.1288706E-1,5.010545E-1,6.2858194E-2,0E0,2.4968088E-1,0E0,0E0,0E0,0E0],"parents":[2147483647,0,0,1,1,2,2,4,4],"right_children":[2,4,6,-1,8,-1,-1,-1,-1],"split_conditions":[-1.0046945E-1,-1.4029617E0,-1.7538014E-1,-1.6857693E-1,-3.631212E-1,1.8195411E-2,1.3230024E-1,-5.638827E-2,8.75904E-2],"split_indices":[37,35,13,0,22,0,0,0,0],"split_type":[0,0,0,0,0,0,0,0,0],"sum_hessian":[5.5797534E0,3.482131E0,2.0976224E0,1.0454168E0,2.4367142E0,1.0153393E0,1.0822833E0,1.1118618E0,1.3248525E0],"tree_param":{"num_deleted":"0","num_feature":"41","num_nodes":"9","size_leaf_vector":"1"}},{"base_weights":[2.0895654E-2,9.870196E-2,-1.9661048E-1,-1.3621198E-1,7.692287E-2],"categories":[],"categories_nodes":[],"categories_segments":[],"categories_sizes":[],"default_left":[0,0,0,0,0],"id":21,"left_children":[1,-1,3,-1,-1],"loss_changes":[4.8467064E-1,0E0,6.178363E-1,0E0,0E0],"parents":[2147483647,0,0,2,2],"right_children":[2,-1,4,-1,-1],"split_conditions":[-1.4171258E-1,9.870196E-2,-1.7538014E-1,-1.3621198E-1,7.692287E-2],"split_indices":[0,0,13,0,0],"split_type":[0,0,0,0,0],"sum_hessian":[5.266928E0,1.9673808E0,3.2995474E0,2.10253E0,1.1970176E0],"tree_param":{"num_deleted":"0","num_feature":"41","num_nodes":"5","size_leaf_vector":"1"}},{"base_weights":[2.1200676E-2,-1.06886886E-1,1.8126927E-1,-5.6514025E-2,1.4105898E-1,5.325566E-2,-9.3007065E-2],"categories":[],"categories_nodes":[],"categories_segments":[],"categories_sizes":[],"default_left":[0,0,0,0,0,0,0],"id":22,"left_children":[1,-1,3,5,-1,-1,-1],"loss_changes":[4.2915443E-1,0E0,3.6319226E-1,2.6746067E-1,0E0,0E0,0E0],"parents":[2147483647,0,0,2,2,3,3],"right_children":[2,-1,4,6,-1,-1,-1],"split_conditions":[-7.6172245E-1,-1.06886886E-1,3.2337046E-1,-2.2855014E-1,1.4105898E-1,5.325566E-2,-9.3007065E-2],"split_indices":[37,0,8,21,0,0,0],"split_type":[0,0,0,0,0,0,0],"sum_hessian":[5.0334973E0,1.1337993E0,3.8996983E0,2.5804353E0,1.3192629E0,1.4976248E0,1.0828105E0],"tree_param":{"num_deleted":"0","num_feature":"41","num_nodes":"7","size_leaf_vector":"1"}},{"base_weights":[1.5360964E-2,-1.393545E-1,1.0816672E-1,-3.069459E-1,6.1509777E-2,-1.4289355E-1,1.6608514E-2],"categories":[],"categories_nodes":[],"categories_segments":[],"categories_sizes":[],"default_left":[0,0,0,0,0,0,0],"id":23,"left_children":[1,3,-1,5,-1,-1,-1],"loss_changes":[3.5882658E-1,3.3483413E-1,0E0,2.4539408E-1,0E0,0E0,0E0],"parents":[2147483647,0,0,1,1,3,3],"right_children":[2,4,-1,6,-1,-1,-1],"split_conditions":[3.403659E-1,-4.2736065E-2,1.0816672E-1,-2.4400415E-1,6.1509777E-2,-1.4289355E-1,1.6608514E-2],"split_indices":[37,25,0,22,0,0,0],"split_type":[0,0,0,0,0,0,0],"sum_hessian":[4.777926E0,3.710977E0,1.0669492E0,2.5693536E0,1.1416233E0,1.5364543E0,1.0328993E0],"tree_param":{"num_deleted":"0","num_feature":"41","num_nodes":"7","size_leaf_vector":"1"}},{"base_weights":[1.8206703E-2,8.535619E-2,-1.7189185E-1,-1.14256315E-1,5.921699E-2],"categories":[],"categories_nodes":[],"categories_segments":[],"categories_sizes":[],"default_left":[0,0,0,0,0],"id":24,"left_children":[1,-1,3,-1,-1],"loss_changes":[3.2972273E-1,0E0,3.7303463E-1,0E0,0E0],"parents":[2147483647,0,0,2,2],"right_children":[2,-1,4,-1,-1],"split_conditions":[-1.4171258E-1,8.535619E-2,-1.7538014E-1,-1.14256315E-1,5.921699E-2],"split_indices":[0,0,13,0,0],"split_type":[0,0,0,0,0],"sum_hessian":[4.5468845E0,1.686926E0,2.8599584E0,1.8064303E0,1.0535281E0],"tree_param":{"num_deleted":"0","num_feature":"41","num_nodes":"5","size_leaf_vector":"1"}},{"base_weights":[1.8431026E-2,-8.803903E-2,1.7773433E-1,-4.713061E-2,1.1228305E-1],"categories":[],"categories_nodes":[],"categories_segments":[],"categories_sizes":[],"default_left":[0,0,0,0,0],"id":25,"left_children":[1,-1,3,-1,-1],"loss_changes":[3.2010463E-1,0E0,3.346998E-1,0E0,0E0],"parents":[2147483647,0,0,2,2],"right_children":[2,-1,4,-1,-1],"split_conditions":[-1.4029617E0,-8.803903E-2,-6.954741E-1,-4.713061E-2,1.1228305E-1],"split_indices":[35,0,40,0,0],"split_type":[0,0,0,0,0],"sum_hessian":[4.3928084E0,1.2004063E0,3.1924021E0,1.2550049E0,1.9373972E0],"tree_param":{"num_deleted":"0","num_feature":"41","num_nodes":"5","size_leaf_vector":"1"}},{"base_weights":[9.613699E-3,-1.7858331E-1,8.039278E-2,-1.1151167E-1,2.6999805E-2],"categories":[],"categories_nodes":[],"categories_segments":[],"categories_sizes":[],"default_left":[0,0,0,0,0],"id":26,"left_children":[1,3,-1,-1,-1],"loss_changes":[3.0300263E-1,2.2205323E-1,0E0,0E0,0E0],"parents":[2147483647,0,0,1,1],"right_children":[2,4,-1,-1,-1],"split_conditions":[-1.0046945E-1,9.6795505E-1,8.039278E-2,-1.1151167E-1,2.6999805E-2],"split_indices":[37,31,0,0,0],"split_type":[0,0,0,0,0],"sum_hessian":[4.247446E0,2.6360633E0,1.6113826E0,1.3100966E0,1.3259667E0],"tree_param":{"num_deleted":"0","num_feature":"41","num_nodes":"5","size_leaf_vector":"1"}},{"base_weights":[5.746015E-3,8.284529E-2,-1.7797183E-1,-1.21986605E-1,5.827437E-2],"categories":[],"categories_nodes":[],"categories_segments":[],"categories_sizes":[],"default_left":[0,0,0,0,0],"id":27,"left_children":[1,-1,3,-1,-1],"loss_changes":[3.028107E-1,0E0,3.8950384E-1,0E0,0E0],"parents":[2147483647,0,0,2,2],"right_children":[2,-1,4,-1,-1],"split_conditions":[3.5716817E-1,8.284529E-2,-2.1334961E-1,-1.21986605E-1,5.827437E-2],"split_indices":[9,0,22,0,0],"split_type":[0,0,0,0,0],"sum_hessian":[4.106134E0,1.4576166E0,2.6485174E0,1.5834178E0,1.0650995E0],"tree_param":{"num_deleted":"0","num_feature":"41","num_nodes":"5","size_leaf_vector":"1"}},{"base_weights":[7.4198362E-3,1.7416053E-1,-7.654563E-2,-2.8909227E-2,1.01971716E-1],"categories":[],"categories_nodes":[],"categories_segments":[],"categories_sizes":[],"default_left":[0,0,0,0,0],"id":28,"left_children":[1,3,-1,-1,-1],"loss_changes":[2.610896E-1,1.9510809E-1,0E0,0E0,0E0],"parents":[2147483647,0,0,1,1],"right_children":[2,4,-1,-1,-1],"split_conditions":[4.2730078E-2,-7.8456074E-2,-7.654563E-2,-2.8909227E-2,1.01971716E-1],"split_indices":[15,16,0,0,0],"split_type":[0,0,0,0,0],"sum_hessian":[3.9484947E0,2.6208763E0,1.3276182E0,1.1547412E0,1.4661351E0],"tree_param":{"num_deleted":"0","num_feature":"41","num_nodes":"5","size_leaf_vector":"1"}},{"base_weights":[5.102877E-3,-1.7074223E-1,7.379586E-2,-9.890137E-2,1.7950282E-2],"categories":[],"categories_nodes":[],"categories_segments":[],"categories_sizes":[],"default_left":[0,0,0,0,0],"id":29,"left_children":[1,3,-1,-1,-1],"loss_changes":[2.4733202E-1,1.4403778E-1,0E0,0E0,0E0],"parents":[2147483647,0,0,1,1],"right_children":[2,4,-1,-1,-1],"split_conditions":[-1.0046945E-1,9.6795505E-1,7.379586E-2,-9.890137E-2,1.7950282E-2],"split_indices":[37,31,0,0,0],"split_type":[0,0,0,0,0],"sum_hessian":[3.847515E0,2.3923094E0,1.4552057E0,1.1617696E0,1.2305398E0],"tree_param":{"num_deleted":"0","num_feature":"41","num_nodes":"5","size_leaf_vector":"1"}},{"base_weights":[1.9194654E-3,7.235215E-2,-1.6042463E-1,-9.416349E-2,2.3688283E-2],"categories":[],"categories_nodes":[],"categories_segments":[],"categories_sizes":[],"default_left":[0,0,0,0,0],"id":30,"left_children":[1,-1,3,-1,-1],"loss_changes":[2.228122E-1,0E0,1.5058596E-1,0E0,0E0],"parents":[2147483647,0,0,2,2],"right_children":[2,-1,4,-1,-1],"split_conditions":[3.5716817E-1,7.235215E-2,-2.0461911E-1,-9.416349E-2,2.3688283E-2],"split_indices":[9,0,40,0,0],"split_type":[0,0,0,0,0],"sum_hessian":[3.7403374E0,1.3157222E0,2.4246151E0,1.2878683E0,1.1367469E0],"tree_param":{"num_deleted":"0","num_feature":"41","num_nodes":"5","size_leaf_vector":"1"}},{"base_weights":[1.6100706E-3,-7.703757E-2,1.4487278E-1,1.1304612E-1,-2.946523E-2],"categories":[],"categories_nodes":[],"categories_segments":[],"categories_sizes":[],"default_left":[0,0,0,0,0],"id":31,"left_children":[1,-1,3,-1,-1],"loss_changes":[2.0967036E-1,0E0,2.4205115E-1,0E0,0E0],"parents":[2147483647,0,0,2,2],"right_children":[2,-1,4,-1,-1],"split_conditions":[-1.4029617E0,-7.703757E-2,-3.5789225E-1,1.1304612E-1,-2.946523E-2],"split_indices":[35,0,26,0,0],"split_type":[0,0,0,0,0],"sum_hessian":[3.6588635E0,1.0223691E0,2.6364946E0,1.0676537E0,1.568841E0],"tree_param":{"num_deleted":"0","num_feature":"41","num_nodes":"5","size_leaf_vector":"1"}},{"base_weights":[3.2230262E-3,-6.438984E-2,1.6949652E-1,9.4859056E-2,-2.0844795E-2],"categories":[],"categories_nodes":[],"categories_segments":[],"categories_sizes":[],"default_left":[0,0,0,0,0],"id":32,"left_children":[1,-1,3,-1,-1],"loss_changes":[2.0153126E-1,0E0,1.3221031E-1,0E0,0E0],"parents":[2147483647,0,0,2,2],"right_children":[2,-1,4,-1,-1],"split_conditions":[-4.0750667E-1,-6.438984E-2,-7.436015E-2,9.4859056E-2,-2.0844795E-2],"split_indices":[36,0,15,0,0],"split_type":[0,0,0,0,0],"sum_hessian":[3.5592244E0,1.4147458E0,2.1444786E0,1.1285745E0,1.0159041E0],"tree_param":{"num_deleted":"0","num_feature":"41","num_nodes":"5","size_leaf_vector":"1"}},{"base_weights":[4.814638E-3,7.018458E-2,-1.5759428E-1,-1.01381145E-1,3.0976327E-2],"categories":[],"categories_nodes":[],"categories_segments":[],"categories_sizes":[],"default_left":[0,0,0,0,0],"id":33,"left_children":[1,-1,3,-1,-1],"loss_changes":[2.0349897E-1,0E0,1.8626983E-1,0E0,0E0],"parents":[2147483647,0,0,2,2],"right_children":[2,-1,4,-1,-1],"split_conditions":[-1.4171258E-1,7.018458E-2,-1.8787438E-1,-1.01381145E-1,3.0976327E-2],"split_indices":[0,0,13,0,0],"split_type":[0,0,0,0,0],"sum_hessian":[3.4776895E0,1.259806E0,2.2178833E0,1.1365664E0,1.081317E0],"tree_param":{"num_deleted":"0","num_feature":"41","num_nodes":"5","size_leaf_vector":"1"}},{"base_weights":[3.0410069E-3,-1.5436864E-1,6.490158E-2,-8.502757E-2,1.2607954E-2],"categories":[],"categories_nodes":[],"categories_segments":[],"categories_sizes":[],"default_left":[0,0,0,0,0],"id":34,"left_children":[1,3,-1,-1,-1],"loss_changes":[1.8057215E-1,9.063022E-2,0E0,0E0,0E0],"parents":[2147483647,0,0,1,1],"right_children":[2,4,-1,-1,-1],"split_conditions":[-1.0046945E-1,9.6795505E-1,6.490158E-2,-8.502757E-2,1.2607954E-2],"split_indices":[37,31,0,0,0],"split_type":[0,0,0,0,0],"sum_hessian":[3.3834941E0,2.1057591E0,1.277735E0,1.0033157E0,1.1024435E0],"tree_param":{"num_deleted":"0","num_feature":"41","num_nodes":"5","size_leaf_vector":"1"}},{"base_weights":[2.8050478E-4,6.622456E-2,-1.4826068E-1,-8.47874E-2,2.0802211E-2],"categories":[],"categories_nodes":[],"categories_segments":[],"categories_sizes":[],"default_left":[0,0,0,0,0],"id":35,"left_children":[1,-1,3,-1,-1],"loss_changes":[1.7378111E-1,0E0,1.1232685E-1,0E0,0E0],"parents":[2147483647,0,0,2,2],"right_children":[2,-1,4,-1,-1],"split_conditions":[3.5716817E-1,6.622456E-2,-2.0461911E-1,-8.47874E-2,2.0802211E-2],"split_indices":[9,0,40,0,0],"split_type":[0,0,0,0,0],"sum_hessian":[3.3071418E0,1.13558E0,2.171562E0,1.1578175E0,1.0137445E0],"tree_param":{"num_deleted":"0","num_feature":"41","num_nodes":"5","size_leaf_vector":"1"}},{"base_weights":[6.005251E-4,-1.4310047E-1,5.9277147E-2,1.4533208E-2,-7.972127E-2],"categories":[],"categories_nodes":[],"categories_segments":[],"categories_sizes":[],"default_left":[0,0,0,0,0],"id":36,"left_children":[1,3,-1,-1,-1],"loss_changes":[1.484109E-1,8.4139645E-2,0E0,0E0,0E0],"parents":[2147483647,0,0,1,1],"right_children":[2,4,-1,-1,-1],"split_conditions":[-1.0046945E-1,-4.00258E-2,5.9277147E-2,1.4533208E-2,-7.972127E-2],"split_indices":[37,7,0,0,0],"split_type":[0,0,0,0,0],"sum_hessian":[3.2439263E0,2.0338385E0,1.2100878E0,1.0300319E0,1.0038066E0],"tree_param":{"num_deleted":"0","num_feature":"41","num_nodes":"5","size_leaf_vector":"1"}},{"base_weights":[-1.1044514E-3,-1.3736676E-1,6.0439304E-2,1.1597282E-2,-7.476536E-2],"categories":[],"categories_nodes":[],"categories_segments":[],"categories_sizes":[],"default_left":[0,0,0,0,0],"id":37,"left_children":[1,3,-1,-1,-1],"loss_changes":[1.4308007E-1,7.0553795E-2,0E0,0E0,0E0],"parents":[2147483647,0,0,1,1],"right_children":[2,4,-1,-1,-1],"split_conditions":[-1.80862E-1,-3.9238822E-1,6.0439304E-2,1.1597282E-2,-7.476536E-2],"split_indices":[22,22,0,0,0],"split_type":[0,0,0,0,0],"sum_hessian":[3.1809838E0,2.0941703E0,1.0868133E0,1.0679227E0,1.0262477E0],"tree_param":{"num_deleted":"0","num_feature":"41","num_nodes":"5","size_leaf_vector":"1"}},{"base_weights":[-1.5039208E-3,1.30112E-1,-6.0069494E-2,-2.0865869E-2,7.86822E-2],"categories":[],"categories_nodes":[],"categories_segments":[],"categories_sizes":[],"default_left":[0,0,0,0,0],"id":38,"left_children":[1,3,-1,-1,-1],"loss_changes":[1.3411279E-1,9.982085E-2,0E0,0E0,0E0],"parents":[2147483647,0,0,1,1],"right_children":[2,4,-1,-1,-1],"split_conditions":[4.2730078E-2,-7.771973E-2,-6.0069494E-2,-2.0865869E-2,7.86822E-2],"split_indices":[15,16,0,0,0],"split_type":[0,0,0,0,0],"sum_hessian":[3.1314173E0,2.091504E0,1.0399132E0,1.0216966E0,1.0698075E0],"tree_param":{"num_deleted":"0","num_feature":"41","num_nodes":"5","size_leaf_vector":"1"}},{"base_weights":[-1.3935379E-3,5.8553983E-2,-1.335142E-1,-6.444117E-2,4.5939614E-3],"categories":[],"categories_nodes":[],"categories_segments":[],"categories_sizes":[],"default_left":[0,0,0,0,0],"id":39,"left_children":[1,-1,3,-1,-1],"loss_changes":[1.3196369E-1,0E0,3.997648E-2,0E0,0E0],"parents":[2147483647,0,0,2,2],"right_children":[2,-1,4,-1,-1],"split_conditions":[3.5716817E-1,5.8553983E-2,-7.7238575E-2,-6.444117E-2,4.5939614E-3],"split_indices":[9,0,16,0,0],"split_type":[0,0,0,0,0],"sum_hessian":[3.077728E0,1.045264E0,2.032464E0,1.0277805E0,1.0046834E0],"tree_param":{"num_deleted":"0","num_feature":"41","num_nodes":"5","size_leaf_vector":"1"}},{"base_weights":[-1.3286922E-3,-5.5099357E-2,4.3006223E-2],"categories":[],"categories_nodes":[],"categories_segments":[],"categories_sizes":[],"default_left":[0,0,0],"id":40,"left_children":[1,-1,-1],"loss_changes":[1.3279146E-1,0E0,0E0],"parents":[2147483647,0,0],"right_children":[2,-1,-1],"split_conditions":[-4.0750667E-1,-5.5099357E-2,4.3006223E-2],"split_indices":[36,0,0],"split_type":[0,0,0],"sum_hessian":[3.0355935E0,1.2238336E0,1.8117601E0],"tree_param":{"num_deleted":"0","num_feature":"41","num_nodes":"3","size_leaf_vector":"1"}},{"base_weights":[-4.0021124E-3,5.7437822E-2,-4.2346578E-2],"categories":[],"categories_nodes":[],"categories_segments":[],"categories_sizes":[],"default_left":[0,0,0],"id":41,"left_children":[1,-1,-1],"loss_changes":[1.3414754E-1,0E0,0E0],"parents":[2147483647,0,0],"right_children":[2,-1,-1],"split_conditions":[-1.4171258E-1,5.7437822E-2,-4.2346578E-2],"split_indices":[0,0,0],"split_type":[0,0,0],"sum_hessian":[2.995875E0,1.0720736E0,1.9238012E0],"tree_param":{"num_deleted":"0","num_feature":"41","num_nodes":"3","size_leaf_vector":"1"}},{"base_weights":[1.0710673E-3,-5.509629E-2,3.9737504E-2],"categories":[],"categories_nodes":[],"categories_segments":[],"categories_sizes":[],"default_left":[0,0,0],"id":42,"left_children":[1,-1,-1],"loss_changes":[1.2052782E-1,0E0,0E0],"parents":[2147483647,0,0],"right_children":[2,-1,-1],"split_conditions":[-2.7267906E-1,-5.509629E-2,3.9737504E-2],"split_indices":[39,0,0],"split_type":[0,0,0],"sum_hessian":[2.9637015E0,1.0664732E0,1.8972282E0],"tree_param":{"num_deleted":"0","num_feature":"41","num_nodes":"3","size_leaf_vector":"1"}},{"base_weights":[-3.180449E-3,-3.914949E-2,5.2033547E-2],"categories":[],"categories_nodes":[],"categories_segments":[],"categories_sizes":[],"default_left":[0,0,0],"id":43,"left_children":[1,-1,-1],"loss_changes":[1.1113677E-1,0E0,0E0],"parents":[2147483647,0,0],"right_children":[2,-1,-1],"split_conditions":[-1.0046945E-1,-3.914949E-2,5.2033547E-2],"split_indices":[37,0,0],"split_type":[0,0,0],"sum_hessian":[2.9356139E0,1.8576872E0,1.0779266E0],"tree_param":{"num_deleted":"0","num_feature":"41","num_nodes":"3","size_leaf_vector":"1"}},{"base_weights":[1.1346093E-3,5.237818E-2,-3.8037118E-2],"categories":[],"categories_nodes":[],"categories_segments":[],"categories_sizes":[],"default_left":[0,0,0],"id":44,"left_children":[1,-1,-1],"loss_changes":[1.0871425E-1,0E0,0E0],"parents":[2147483647,0,0],"right_children":[2,-1,-1],"split_conditions":[-3.5789225E-1,5.237818E-2,-3.8037118E-2],"split_indices":[26,0,0],"split_type":[0,0,0],"sum_hessian":[2.901679E0,1.0767925E0,1.8248867E0],"tree_param":{"num_deleted":"0","num_feature":"41","num_nodes":"3","size_leaf_vector":"1"}},{"base_weights":[4.5608156E-3,-4.7385655E-2,3.960696E-2],"categories":[],"categories_nodes":[],"categories_segments":[],"categories_sizes":[],"default_left":[0,0,0],"id":45,"left_children":[1,-1,-1],"loss_changes":[1.01217635E-1,0E0,0E0],"parents":[2147483647,0,0],"right_children":[2,-1,-1],"split_conditions":[-4.0750667E-1,-4.7385655E-2,3.960696E-2],"split_indices":[36,0,0],"split_type":[0,0,0],"sum_hessian":[2.8796542E0,1.1606426E0,1.7190115E0],"tree_param":{"num_deleted":"0","num_feature":"41","num_nodes":"3","size_leaf_vector":"1"}},{"base_weights":[1.1879575E-3,4.0639278E-2,-4.7206137E-2],"categories":[],"categories_nodes":[],"categories_segments":[],"categories_sizes":[],"default_left":[0,0,0],"id":46,"left_children":[1,-1,-1],"loss_changes":[1.0324751E-1,0E0,0E0],"parents":[2147483647,0,0],"right_children":[2,-1,-1],"split_conditions":[2.756601E-1,4.0639278E-2,-4.7206137E-2],"split_indices":[0,0,0],"split_type":[0,0,0],"sum_hessian":[2.8486552E0,1.6211715E0,1.2274836E0],"tree_param":{"num_deleted":"0","num_feature":"41","num_nodes":"3","size_leaf_vector":"1"}},{"base_weights":[-8.7957666E-4,-3.67486E-2,4.982369E-2],"categories":[],"categories_nodes":[],"categories_segments":[],"categories_sizes":[],"default_left":[0,0,0],"id":47,"left_children":[1,-1,-1],"loss_changes":[9.801581E-2,0E0,0E0],"parents":[2147483647,0,0],"right_children":[2,-1,-1],"split_conditions":[1.0525413E0,-3.67486E-2,4.982369E-2],"split_indices":[27,0,0],"split_type":[0,0,0],"sum_hessian":[2.8253002E0,1.7886941E0,1.036606E0],"tree_param":{"num_deleted":"0","num_feature":"41","num_nodes":"3","size_leaf_vector":"1"}},{"base_weights":[2.8767895E-3,4.5876987E-2,-3.3099256E-2],"categories":[],"categories_nodes":[],"categories_segments":[],"categories_sizes":[],"default_left":[0,0,0],"id":48,"left_children":[1,-1,-1],"loss_changes":[8.147486E-2,0E0,0E0],"parents":[2147483647,0,0],"right_children":[2,-1,-1],"split_conditions":[-3.5789225E-1,4.5876987E-2,-3.3099256E-2],"split_indices":[26,0,0],"split_type":[0,0,0],"sum_hessian":[2.8031995E0,1.0546005E0,1.748599E0],"tree_param":{"num_deleted":"0","num_feature":"41","num_nodes":"3","size_leaf_vector":"1"}},{"base_weights":[5.4428843E-3,-4.3276325E-2,3.694266E-2],"categories":[],"categories_nodes":[],"categories_segments":[],"categories_sizes":[],"default_left":[0,0,0],"id":49,"left_children":[1,-1,-1],"loss_changes":[8.448017E-2,0E0,0E0],"parents":[2147483647,0,0],"right_children":[2,-1,-1],"split_conditions":[-4.0750667E-1,-4.3276325E-2,3.694266E-2],"split_indices":[36,0,0],"split_type":[0,0,0],"sum_hessian":[2.7865567E0,1.1272421E0,1.6593146E0],"tree_param":{"num_deleted":"0","num_feature":"41","num_nodes":"3","size_leaf_vector":"1"}},{"base_weights":[2.1482334E-3,4.562868E-2,-3.403418E-2],"categories":[],"categories_nodes":[],"categories_segments":[],"categories_sizes":[],"default_left":[0,0,0],"id":50,"left_children":[1,-1,-1],"loss_changes":[8.243944E-2,0E0,0E0],"parents":[2147483647,0,0],"right_children":[2,-1,-1],"split_conditions":[-1.5214011E-1,4.562868E-2,-3.403418E-2],"split_indices":[10,0,0],"split_type":[0,0,0],"sum_hessian":[2.7606702E0,1.064314E0,1.6963562E0],"tree_param":{"num_deleted":"0","num_feature":"41","num_nodes":"3","size_leaf_vector":"1"}},{"base_weights":[4.668109E-3,-3.7499983E-2,3.898257E-2],"categories":[],"categories_nodes":[],"categories_segments":[],"categories_sizes":[],"default_left":[0,0,0],"id":51,"left_children":[1,-1,-1],"loss_changes":[7.6959066E-2,0E0,0E0],"parents":[2147483647,0,0],"right_children":[2,-1,-1],"split_conditions":[9.6795505E-1,-3.7499983E-2,3.898257E-2],"split_indices":[31,0,0],"split_type":[0,0,0],"sum_hessian":[2.7377684E0,1.3463638E0,1.3914046E0],"tree_param":{"num_deleted":"0","num_feature":"41","num_nodes":"3","size_leaf_vector":"1"}},{"base_weights":[3.7019057E-3,-3.275194E-2,4.2138364E-2],"categories":[],"categories_nodes":[],"categories_segments":[],"categories_sizes":[],"default_left":[0,0,0],"id":52,"left_children":[1,-1,-1],"loss_changes":[7.275568E-2,0E0,0E0],"parents":[2147483647,0,0],"right_children":[2,-1,-1],"split_conditions":[1.5920687E-1,-3.275194E-2,4.2138364E-2],"split_indices":[1,0,0],"split_type":[0,0,0],"sum_hessian":[2.7197747E0,1.6005037E0,1.119271E0],"tree_param":{"num_deleted":"0","num_feature":"41","num_nodes":"3","size_leaf_vector":"1"}},{"base_weights":[5.1704943E-3,-3.430399E-2,3.8077146E-2],"categories":[],"categories_nodes":[],"categories_segments":[],"categories_sizes":[],"default_left":[0,0,0],"id":53,"left_children":[1,-1,-1],"loss_changes":[6.841849E-2,0E0,0E0],"parents":[2147483647,0,0],"right_children":[2,-1,-1],"split_conditions":[-1.79938E-1,-3.430399E-2,3.8077146E-2],"split_indices":[36,0,0],"split_type":[0,0,0],"sum_hessian":[2.704414E0,1.3954387E0,1.3089753E0],"tree_param":{"num_deleted":"0","num_feature":"41","num_nodes":"3","size_leaf_vector":"1"}},{"base_weights":[4.6911878E-3,3.6030803E-2,-3.9679892E-2],"categories":[],"categories_nodes":[],"categories_segments":[],"categories_sizes":[],"default_left":[0,0,0],"id":54,"left_children":[1,-1,-1],"loss_changes":[7.409362E-2,0E0,0E0],"parents":[2147483647,0,0],"right_children":[2,-1,-1],"split_conditions":[2.756601E-1,3.6030803E-2,-3.9679892E-2],"split_indices":[0,0,0],"split_type":[0,0,0],"sum_hessian":[2.6825488E0,1.5225722E0,1.1599766E0],"tree_param":{"num_deleted":"0","num_feature":"41","num_nodes":"3","size_leaf_vector":"1"}},{"base_weights":[2.3105522E-3,3.3975832E-2,-3.7989594E-2],"categories":[],"categories_nodes":[],"categories_segments":[],"categories_sizes":[],"default_left":[0,0,0],"id":55,"left_children":[1,-1,-1],"loss_changes":[6.6778205E-2,0E0,0E0],"parents":[2147483647,0,0],"right_children":[2,-1,-1],"split_conditions":[-3.4378115E-2,3.3975832E-2,-3.7989594E-2],"split_indices":[15,0,0],"split_type":[0,0,0],"sum_hessian":[2.6655834E0,1.4982061E0,1.1673772E0],"tree_param":{"num_deleted":"0","num_feature":"41","num_nodes":"3","size_leaf_vector":"1"}},{"base_weights":[5.282979E-4,3.420771E-2,-3.437835E-2],"categories":[],"categories_nodes":[],"categories_segments":[],"categories_sizes":[],"default_left":[0,0,0],"id":56,"left_children":[1,-1,-1],"loss_changes":[6.076544E-2,0E0,0E0],"parents":[2147483647,0,0],"right_children":[2,-1,-1],"split_conditions":[1.08342804E-1,3.420771E-2,-3.437835E-2],"split_indices":[38,0,0],"split_type":[0,0,0],"sum_hessian":[2.6505606E0,1.3395014E0,1.3110592E0],"tree_param":{"num_deleted":"0","num_feature":"41","num_nodes":"3","size_leaf_vector":"1"}},{"base_weights":[3.3350848E-4,-3.3424303E-2,3.519277E-2],"categories":[],"categories_nodes":[],"categories_segments":[],"categories_sizes":[],"default_left":[0,0,0],"id":57,"left_children":[1,-1,-1],"loss_changes":[6.064706E-2,0E0,0E0],"parents":[2147483647,0,0],"right_children":[2,-1,-1],"split_conditions":[-1.79938E-1,-3.3424303E-2,3.519277E-2],"split_indices":[36,0,0],"split_type":[0,0,0],"sum_hessian":[2.6396813E0,1.3743227E0,1.2653586E0],"tree_param":{"num_deleted":"0","num_feature":"41","num_nodes":"3","size_leaf_vector":"1"}},{"base_weights":[7.3760655E-4,-3.024474E-2,3.790064E-2],"categories":[],"categories_nodes":[],"categories_segments":[],"categories_sizes":[],"default_left":[0,0,0],"id":58,"left_children":[1,-1,-1],"loss_changes":[5.8913816E-2,0E0,0E0],"parents":[2147483647,0,0],"right_children":[2,-1,-1],"split_conditions":[1.5920687E-1,-3.024474E-2,3.790064E-2],"split_indices":[1,0,0],"split_type":[0,0,0],"sum_hessian":[2.620353E0,1.557961E0,1.062392E0],"tree_param":{"num_deleted":"0","num_feature":"41","num_nodes":"3","size_leaf_vector":"1"}},{"base_weights":[2.6635195E-3,-3.2690875E-2,3.3170924E-2],"categories":[],"categories_nodes":[],"categories_segments":[],"categories_sizes":[],"default_left":[0,0,0],"id":59,"left_children":[1,-1,-1],"loss_changes":[5.551051E-2,0E0,0E0],"parents":[2147483647,0,0],"right_children":[2,-1,-1],"split_conditions":[9.6795505E-1,-3.2690875E-2,3.3170924E-2],"split_indices":[31,0,0],"split_type":[0,0,0],"sum_hessian":[2.6080115E0,1.2770256E0,1.330986E0],"tree_param":{"num_deleted":"0","num_feature":"41","num_nodes":"3","size_leaf_vector":"1"}},{"base_weights":[2.0158004E-3,3.3996828E-2,-3.132552E-2],"categories":[],"categories_nodes":[],"categories_segments":[],"categories_sizes":[],"default_left":[0,0,0],"id":60,"left_children":[1,-1,-1],"loss_changes":[5.4420795E-2,0E0,0E0],"parents":[2147483647,0,0],"right_children":[2,-1,-1],"split_conditions":[6.697375E-2,3.3996828E-2,-3.132552E-2],"split_indices":[0,0,0],"split_type":[0,0,0],"sum_hessian":[2.594859E0,1.2367582E0,1.3581005E0],"tree_param":{"num_deleted":"0","num_feature":"41","num_nodes":"3","size_leaf_vector":"1"}},{"base_weights":[2.1752636E-3,-3.499606E-2,2.8981319E-2],"categories":[],"categories_nodes":[],"categories_segments":[],"categories_sizes":[],"default_left":[0,0,0],"id":61,"left_children":[1,-1,-1],"loss_changes":[5.1471233E-2,0E0,0E0],"parents":[2147483647,0,0],"right_children":[2,-1,-1],"split_conditions":[-4.0750667E-1,-3.499606E-2,2.8981319E-2],"split_indices":[36,0,0],"split_type":[0,0,0],"sum_hessian":[2.582778E0,1.0394225E0,1.5433556E0],"tree_param":{"num_deleted":"0","num_feature":"41","num_nodes":"3","size_leaf_vector":"1"}},{"base_weights":[-1.6264615E-4,3.385881E-2,-3.1627864E-2],"categories":[],"categories_nodes":[],"categories_segments":[],"categories_sizes":[],"default_left":[0,0,0],"id":62,"left_children":[1,-1,-1],"loss_changes":[5.4327276E-2,0E0,0E0],"parents":[2147483647,0,0],"right_children":[2,-1,-1],"split_conditions":[1.9741174E-2,3.385881E-2,-3.1627864E-2],"split_indices":[26,0,0],"split_type":[0,0,0],"sum_hessian":[2.5661922E0,1.2026603E0,1.3635318E0],"tree_param":{"num_deleted":"0","num_feature":"41","num_nodes":"3","size_leaf_vector":"1"}},{"base_weights":[5.2504195E-4,-2.7461281E-2,3.4669638E-2],"categories":[],"categories_nodes":[],"categories_segments":[],"categories_sizes":[],"default_left":[0,0,0],"id":63,"left_children":[1,-1,-1],"loss_changes":[4.823202E-2,0E0,0E0],"parents":[2147483647,0,0],"right_children":[2,-1,-1],"split_conditions":[1.5920687E-1,-2.7461281E-2,3.4669638E-2],"split_indices":[1,0,0],"split_type":[0,0,0],"sum_hessian":[2.555255E0,1.5328617E0,1.0223931E0],"tree_param":{"num_deleted":"0","num_feature":"41","num_nodes":"3","size_leaf_vector":"1"}},{"base_weights":[2.4203982E-3,3.0859364E-2,-2.9919295E-2],"categories":[],"categories_nodes":[],"categories_segments":[],"categories_sizes":[],"default_left":[0,0,0],"id":64,"left_children":[1,-1,-1],"loss_changes":[4.663274E-2,0E0,0E0],"parents":[2147483647,0,0],"right_children":[2,-1,-1],"split_conditions":[1.08342804E-1,3.0859364E-2,-2.9919295E-2],"split_indices":[38,0,0],"split_type":[0,0,0],"sum_hessian":[2.545045E0,1.2797256E0,1.2653193E0],"tree_param":{"num_deleted":"0","num_feature":"41","num_nodes":"3","size_leaf_vector":"1"}},{"base_weights":[1.9728544E-3,-2.9407324E-2,3.1697717E-2],"categories":[],"categories_nodes":[],"categories_segments":[],"categories_sizes":[],"default_left":[0,0,0],"id":65,"left_children":[1,-1,-1],"loss_changes":[4.70271E-2,0E0,0E0],"parents":[2147483647,0,0],"right_children":[2,-1,-1],"split_conditions":[-1.79938E-1,-2.9407324E-2,3.1697717E-2],"split_indices":[36,0,0],"split_type":[0,0,0],"sum_hessian":[2.5367231E0,1.31913E0,1.2175931E0],"tree_param":{"num_deleted":"0","num_feature":"41","num_nodes":"3","size_leaf_vector":"1"}},{"base_weights":[2.050302E-3,2.8768985E-2,-3.264305E-2],"categories":[],"categories_nodes":[],"categories_segments":[],"categories_sizes":[],"default_left":[0,0,0],"id":66,"left_children":[1,-1,-1],"loss_changes":[4.70708E-2,0E0,0E0],"parents":[2147483647,0,0],"right_children":[2,-1,-1],"split_conditions":[-3.4378115E-2,2.8768985E-2,-3.264305E-2],"split_indices":[15,0,0],"split_type":[0,0,0],"sum_hessian":[2.5214167E0,1.4385909E0,1.0828259E0],"tree_param":{"num_deleted":"0","num_feature":"41","num_nodes":"3","size_leaf_vector":"1"}},{"base_weights":[3.3711968E-4,2.7055575E-2,-3.150953E-2],"categories":[],"categories_nodes":[],"categories_segments":[],"categories_sizes":[],"default_left":[0,0,0],"id":67,"left_children":[1,-1,-1],"loss_changes":[4.2709682E-2,0E0,0E0],"parents":[2147483647,0,0],"right_children":[2,-1,-1],"split_conditions":[2.756601E-1,2.7055575E-2,-3.150953E-2],"split_indices":[0,0,0],"split_type":[0,0,0],"sum_hessian":[2.5107932E0,1.4329852E0,1.0778079E0],"tree_param":{"num_deleted":"0","num_feature":"41","num_nodes":"3","size_leaf_vector":"1"}},{"base_weights":[-1.0358898E-3,2.5669696E-2,-3.2362137E-2],"categories":[],"categories_nodes":[],"categories_segments":[],"categories_sizes":[],"default_left":[0,0,0],"id":68,"left_children":[1,-1,-1],"loss_changes":[4.1620154E-2,0E0,0E0],"parents":[2147483647,0,0],"right_children":[2,-1,-1],"split_conditions":[-4.00258E-2,2.5669696E-2,-3.2362137E-2],"split_indices":[7,0,0],"split_type":[0,0,0],"sum_hessian":[2.5007262E0,1.4911364E0,1.0095897E0],"tree_param":{"num_deleted":"0","num_feature":"41","num_nodes":"3","size_leaf_vector":"1"}},{"base_weights":[-2.6504463E-3,-3.2518286E-2,2.5089681E-2],"categories":[],"categories_nodes":[],"categories_segments":[],"categories_sizes":[],"default_left":[0,0,0],"id":69,"left_children":[1,-1,-1],"loss_changes":[4.090721E-2,0E0,0E0],"parents":[2147483647,0,0],"right_children":[2,-1,-1],"split_conditions":[-7.8051716E-2,-3.2518286E-2,2.5089681E-2],"split_indices":[16,0,0],"split_type":[0,0,0],"sum_hessian":[2.4899623E0,1.0036588E0,1.4863037E0],"tree_param":{"num_deleted":"0","num_feature":"41","num_nodes":"3","size_leaf_vector":"1"}},{"base_weights":[-4.001808E-3,-2.9185561E-2,2.8538058E-2],"categories":[],"categories_nodes":[],"categories_segments":[],"categories_sizes":[],"default_left":[0,0,0],"id":70,"left_children":[1,-1,-1],"loss_changes":[4.143103E-2,0E0,0E0],"parents":[2147483647,0,0],"right_children":[2,-1,-1],"split_conditions":[-1.79938E-1,-2.9185561E-2,2.8538058E-2],"split_indices":[36,0,0],"split_type":[0,0,0],"sum_hessian":[2.4796576E0,1.2870742E0,1.1925836E0],"tree_param":{"num_deleted":"0","num_feature":"41","num_nodes":"3","size_leaf_vector":"1"}},{"base_weights":[-2.9954857E-3,2.922892E-2,-2.8482368E-2],"categories":[],"categories_nodes":[],"categories_segments":[],"categories_sizes":[],"default_left":[0,0,0],"id":71,"left_children":[1,-1,-1],"loss_changes":[4.1255463E-2,0E0,0E0],"parents":[2147483647,0,0],"right_children":[2,-1,-1],"split_conditions":[1.9741174E-2,2.922892E-2,-2.8482368E-2],"split_indices":[26,0,0],"split_type":[0,0,0],"sum_hessian":[2.466159E0,1.1502196E0,1.3159397E0],"tree_param":{"num_deleted":"0","num_feature":"41","num_nodes":"3","size_leaf_vector":"1"}},{"base_weights":[-1.8797738E-3,2.5406592E-2,-3.081352E-2],"categories":[],"categories_nodes":[],"categories_segments":[],"categories_sizes":[],"default_left":[0,0,0],"id":72,"left_children":[1,-1,-1],"loss_changes":[3.8881566E-2,0E0,0E0],"parents":[2147483647,0,0],"right_children":[2,-1,-1],"split_conditions":[-3.4378115E-2,2.5406592E-2,-3.081352E-2],"split_indices":[15,0,0],"split_type":[0,0,0],"sum_hessian":[2.4578447E0,1.4086025E0,1.0492423E0],"tree_param":{"num_deleted":"0","num_feature":"41","num_nodes":"3","size_leaf_vector":"1"}},{"base_weights":[-2.8891712E-3,2.6600635E-2,-2.8311066E-2],"categories":[],"categories_nodes":[],"categories_segments":[],"categories_sizes":[],"default_left":[0,0,0],"id":73,"left_children":[1,-1,-1],"loss_changes":[3.7256688E-2,0E0,0E0],"parents":[2147483647,0,0],"right_children":[2,-1,-1],"split_conditions":[1.08342804E-1,2.6600635E-2,-2.8311066E-2],"split_indices":[38,0,0],"split_type":[0,0,0],"sum_hessian":[2.4490955E0,1.2393975E0,1.209698E0],"tree_param":{"num_deleted":"0","num_feature":"41","num_nodes":"3","size_leaf_vector":"1"}},{"base_weights":[-2.5206674E-3,-2.7406817E-2,2.7618995E-2],"categories":[],"categories_nodes":[],"categories_segments":[],"categories_sizes":[],"default_left":[0,0,0],"id":74,"left_children":[1,-1,-1],"loss_changes":[3.7336197E-2,0E0,0E0],"parents":[2147483647,0,0],"right_children":[2,-1,-1],"split_conditions":[-1.79938E-1,-2.7406817E-2,2.7618995E-2],"split_indices":[36,0,0],"split_type":[0,0,0],"sum_hessian":[2.4425452E0,1.2771475E0,1.1653978E0],"tree_param":{"num_deleted":"0","num_feature":"41","num_nodes":"3","size_leaf_vector":"1"}},{"base_weights":[-1.704039E-3,2.9414475E-2,-2.5241837E-2],"categories":[],"categories_nodes":[],"categories_segments":[],"categories_sizes":[],"default_left":[0,0,0],"id":75,"left_children":[1,-1,-1],"loss_changes":[3.6457486E-2,0E0,0E0],"parents":[2147483647,0,0],"right_children":[2,-1,-1],"split_conditions":[-3.564703E-1,2.9414475E-2,-2.5241837E-2],"split_indices":[19,0,0],"split_type":[0,0,0],"sum_hessian":[2.4302988E0,1.0139536E0,1.4163454E0],"tree_param":{"num_deleted":"0","num_feature":"41","num_nodes":"3","size_leaf_vector":"1"}},{"base_weights":[3.3418517E-5,-2.9627427E-2,2.4491644E-2],"categories":[],"categories_nodes":[],"categories_segments":[],"categories_sizes":[],"default_left":[0,0,0],"id":76,"left_children":[1,-1,-1],"loss_changes":[3.5651963E-2,0E0,0E0],"parents":[2147483647,0,0],"right_children":[2,-1,-1],"split_conditions":[-7.771973E-2,-2.9627427E-2,2.4491644E-2],"split_indices":[16,0,0],"split_type":[0,0,0],"sum_hessian":[2.4221961E0,1.0006356E0,1.4215605E0],"tree_param":{"num_deleted":"0","num_feature":"41","num_nodes":"3","size_leaf_vector":"1"}},{"base_weights":[-1.4831045E-3,-2.7412381E-2,2.572416E-2],"categories":[],"categories_nodes":[],"categories_segments":[],"categories_sizes":[],"default_left":[0,0,0],"id":77,"left_children":[1,-1,-1],"loss_changes":[3.4598786E-2,0E0,0E0],"parents":[2147483647,0,0],"right_children":[2,-1,-1],"split_conditions":[9.6795505E-1,-2.7412381E-2,2.572416E-2],"split_indices":[31,0,0],"split_type":[0,0,0],"sum_hessian":[2.413184E0,1.1650653E0,1.2481186E0],"tree_param":{"num_deleted":"0","num_feature":"41","num_nodes":"3","size_leaf_vector":"1"}},{"base_weights":[-1.5341041E-3,2.279438E-2,-2.7718924E-2],"categories":[],"categories_nodes":[],"categories_segments":[],"categories_sizes":[],"default_left":[0,0,0],"id":78,"left_children":[1,-1,-1],"loss_changes":[3.1001473E-2,0E0,0E0],"parents":[2147483647,0,0],"right_children":[2,-1,-1],"split_conditions":[-3.4378115E-2,2.279438E-2,-2.7718924E-2],"split_indices":[15,0,0],"split_type":[0,0,0],"sum_hessian":[2.404843E0,1.3861138E0,1.0187294E0],"tree_param":{"num_deleted":"0","num_feature":"41","num_nodes":"3","size_leaf_vector":"1"}},{"base_weights":[-2.5269156E-3,2.4036553E-2,-2.5918895E-2],"categories":[],"categories_nodes":[],"categories_segments":[],"categories_sizes":[],"default_left":[0,0,0],"id":79,"left_children":[1,-1,-1],"loss_changes":[3.0474417E-2,0E0,0E0],"parents":[2147483647,0,0],"right_children":[2,-1,-1],"split_conditions":[1.00225225E-1,2.4036553E-2,-2.5918895E-2],"split_indices":[24,0,0],"split_type":[0,0,0],"sum_hessian":[2.3977494E0,1.2301683E0,1.1675811E0],"tree_param":{"num_deleted":"0","num_feature":"41","num_nodes":"3","size_leaf_vector":"1"}},{"base_weights":[-2.325967E-3,-2.4928477E-2,2.509659E-2],"categories":[],"categories_nodes":[],"categories_segments":[],"categories_sizes":[],"default_left":[0,0,0],"id":80,"left_children":[1,-1,-1],"loss_changes":[3.0500105E-2,0E0,0E0],"parents":[2147483647,0,0],"right_children":[2,-1,-1],"split_conditions":[-1.79938E-1,-2.4928477E-2,2.509659E-2],"split_indices":[36,0,0],"split_type":[0,0,0],"sum_hessian":[2.3909395E0,1.2501473E0,1.1407921E0],"tree_param":{"num_deleted":"0","num_feature":"41","num_nodes":"3","size_leaf_vector":"1"}},{"base_weights":[-1.5796337E-3,2.3111403E-2,-2.8091293E-2],"categories":[],"categories_nodes":[],"categories_segments":[],"categories_sizes":[],"default_left":[0,0,0],"id":81,"left_children":[1,-1,-1],"loss_changes":[3.1680875E-2,0E0,0E0],"parents":[2147483647,0,0],"right_children":[2,-1,-1],"split_conditions":[2.756601E-1,2.3111403E-2,-2.8091293E-2],"split_indices":[0,0,0],"split_type":[0,0,0],"sum_hessian":[2.3806717E0,1.3720756E0,1.0085962E0],"tree_param":{"num_deleted":"0","num_feature":"41","num_nodes":"3","size_leaf_vector":"1"}},{"base_weights":[-2.5866653E-3,2.4001665E-2,-2.5312075E-2],"categories":[],"categories_nodes":[],"categories_segments":[],"categories_sizes":[],"default_left":[0,0,0],"id":82,"left_children":[1,-1,-1],"loss_changes":[2.953617E-2,0E0,0E0],"parents":[2147483647,0,0],"right_children":[2,-1,-1],"split_conditions":[1.08342804E-1,2.4001665E-2,-2.5312075E-2],"split_indices":[38,0,0],"split_type":[0,0,0],"sum_hessian":[2.3731966E0,1.191622E0,1.1815745E0],"tree_param":{"num_deleted":"0","num_feature":"41","num_nodes":"3","size_leaf_vector":"1"}},{"base_weights":[-2.2002726E-3,-2.8321961E-2,2.298571E-2],"categories":[],"categories_nodes":[],"categories_segments":[],"categories_sizes":[],"default_left":[0,0,0],"id":83,"left_children":[1,-1,-1],"loss_changes":[3.1711187E-2,0E0,0E0],"parents":[2147483647,0,0],"right_children":[2,-1,-1],"split_conditions":[-4.1284617E-2,-2.8321961E-2,2.298571E-2],"split_indices":[39,0,0],"split_type":[0,0,0],"sum_hessian":[2.3680634E0,1.0002124E0,1.3678511E0],"tree_param":{"num_deleted":"0","num_feature":"41","num_nodes":"3","size_leaf_vector":"1"}},{"base_weights":[-3.1353922E-3,2.4508022E-2,-2.4663335E-2],"categories":[],"categories_nodes":[],"categories_segments":[],"categories_sizes":[],"default_left":[0,0,0],"id":84,"left_children":[1,-1,-1],"loss_changes":[2.9253233E-2,0E0,0E0],"parents":[2147483647,0,0],"right_children":[2,-1,-1],"split_conditions":[1.9741174E-2,2.4508022E-2,-2.4663335E-2],"split_indices":[26,0,0],"split_type":[0,0,0],"sum_hessian":[2.3597894E0,1.1225095E0,1.2372799E0],"tree_param":{"num_deleted":"0","num_feature":"41","num_nodes":"3","size_leaf_vector":"1"}},{"base_weights":[-2.2419002E-3,-2.3969868E-2,2.4239752E-2],"categories":[],"categories_nodes":[],"categories_segments":[],"categories_sizes":[],"default_left":[0,0,0],"id":85,"left_children":[1,-1,-1],"loss_changes":[2.8083786E-2,0E0,0E0],"parents":[2147483647,0,0],"right_children":[2,-1,-1],"split_conditions":[-1.79938E-1,-2.3969868E-2,2.4239752E-2],"split_indices":[36,0,0],"split_type":[0,0,0],"sum_hessian":[2.3538108E0,1.2358809E0,1.1179298E0],"tree_param":{"num_deleted":"0","num_feature":"41","num_nodes":"3","size_leaf_vector":"1"}},{"base_weights":[-1.4897807E-3,2.2764325E-2,-2.5913792E-2],"categories":[],"categories_nodes":[],"categories_segments":[],"categories_sizes":[],"default_left":[0,0,0],"id":86,"left_children":[1,-1,-1],"loss_changes":[2.8520158E-2,0E0,0E0],"parents":[2147483647,0,0],"right_children":[2,-1,-1],"split_conditions":[-2.3714791E-1,2.2764325E-2,-2.5913792E-2],"split_indices":[21,0,0],"split_type":[0,0,0],"sum_hessian":[2.3443484E0,1.2820078E0,1.0623407E0],"tree_param":{"num_deleted":"0","num_feature":"41","num_nodes":"3","size_leaf_vector":"1"}},{"base_weights":[-1.987804E-3,-2.4831783E-2,2.3756221E-2],"categories":[],"categories_nodes":[],"categories_segments":[],"categories_sizes":[],"default_left":[0,0,0],"id":87,"left_children":[1,-1,-1],"loss_changes":[2.8445706E-2,0E0,0E0],"parents":[2147483647,0,0],"right_children":[2,-1,-1],"split_conditions":[-7.7238575E-2,-2.4831783E-2,2.3756221E-2],"split_indices":[16,0,0],"split_type":[0,0,0],"sum_hessian":[2.3382256E0,1.162068E0,1.1761575E0],"tree_param":{"num_deleted":"0","num_feature":"41","num_nodes":"3","size_leaf_vector":"1"}},{"base_weights":[-1.7159301E-3,-2.3705322E-2,2.1999829E-2],"categories":[],"categories_nodes":[],"categories_segments":[],"categories_sizes":[],"default_left":[0,0,0],"id":88,"left_children":[1,-1,-1],"loss_changes":[2.5113355E-2,0E0,0E0],"parents":[2147483647,0,0],"right_children":[2,-1,-1],"split_conditions":[9.6795505E-1,-2.3705322E-2,2.1999829E-2],"split_indices":[31,0,0],"split_type":[0,0,0],"sum_hessian":[2.3300185E0,1.1217277E0,1.2082907E0],"tree_param":{"num_deleted":"0","num_feature":"41","num_nodes":"3","size_leaf_vector":"1"}},{"base_weights":[-1.7151977E-3,2.2272578E-2,-2.3584254E-2],"categories":[],"categories_nodes":[],"categories_segments":[],"categories_sizes":[],"default_left":[0,0,0],"id":89,"left_children":[1,-1,-1],"loss_changes":[2.5250755E-2,0E0,0E0],"parents":[2147483647,0,0],"right_children":[2,-1,-1],"split_conditions":[1.00225225E-1,2.2272578E-2,-2.3584254E-2],"split_indices":[24,0,0],"split_type":[0,0,0],"sum_hessian":[2.3237813E0,1.1864326E0,1.1373487E0],"tree_param":{"num_deleted":"0","num_feature":"41","num_nodes":"3","size_leaf_vector":"1"}},{"base_weights":[-1.5966172E-3,2.224967E-2,-2.3041818E-2],"categories":[],"categories_nodes":[],"categories_segments":[],"categories_sizes":[],"default_left":[0,0,0],"id":90,"left_children":[1,-1,-1],"loss_changes":[2.4603201E-2,0E0,0E0],"parents":[2147483647,0,0],"right_children":[2,-1,-1],"split_conditions":[1.08342804E-1,2.224967E-2,-2.3041818E-2],"split_indices":[38,0,0],"split_type":[0,0,0],"sum_hessian":[2.3181348E0,1.1617382E0,1.1563965E0],"tree_param":{"num_deleted":"0","num_feature":"41","num_nodes":"3","size_leaf_vector":"1"}},{"base_weights":[-1.3558463E-3,-2.465239E-2,2.0766113E-2],"categories":[],"categories_nodes":[],"categories_segments":[],"categories_sizes":[],"default_left":[0,0,0],"id":91,"left_children":[1,-1,-1],"loss_changes":[2.4590397E-2,0E0,0E0],"parents":[2147483647,0,0],"right_children":[2,-1,-1],"split_conditions":[-3.0125955E-1,-2.465239E-2,2.0766113E-2],"split_indices":[17,0,0],"split_type":[0,0,0],"sum_hessian":[2.3139236E0,1.0020778E0,1.3118458E0],"tree_param":{"num_deleted":"0","num_feature":"41","num_nodes":"3","size_leaf_vector":"1"}},{"base_weights":[-2.1257398E-3,-2.3209196E-2,2.2108886E-2],"categories":[],"categories_nodes":[],"categories_segments":[],"categories_sizes":[],"default_left":[0,0,0],"id":92,"left_children":[1,-1,-1],"loss_changes":[2.4577906E-2,0E0,0E0],"parents":[2147483647,0,0],"right_children":[2,-1,-1],"split_conditions":[-7.7238575E-2,-2.3209196E-2,2.2108886E-2],"split_indices":[16,0,0],"split_type":[0,0,0],"sum_hessian":[2.3089235E0,1.1487156E0,1.1602077E0],"tree_param":{"num_deleted":"0","num_feature":"41","num_nodes":"3","size_leaf_vector":"1"}},{"base_weights":[-1.8231932E-3,2.283851E-2,-2.2465076E-2],"categories":[],"categories_nodes":[],"categories_segments":[],"categories_sizes":[],"default_left":[0,0,0],"id":93,"left_children":[1,-1,-1],"loss_changes":[2.4504647E-2,0E0,0E0],"parents":[2147483647,0,0],"right_children":[2,-1,-1],"split_conditions":[1.9741174E-2,2.283851E-2,-2.2465076E-2],"split_indices":[26,0,0],"split_type":[0,0,0],"sum_hessian":[2.3017232E0,1.09327E0,1.2084532E0],"tree_param":{"num_deleted":"0","num_feature":"41","num_nodes":"3","size_leaf_vector":"1"}},{"base_weights":[-1.1618811E-3,-2.2527143E-2,2.333614E-2],"categories":[],"categories_nodes":[],"categories_segments":[],"categories_sizes":[],"default_left":[0,0,0],"id":94,"left_children":[1,-1,-1],"loss_changes":[2.5082855E-2,0E0,0E0],"parents":[2147483647,0,0],"right_children":[2,-1,-1],"split_conditions":[-1.79938E-1,-2.2527143E-2,2.333614E-2],"split_indices":[36,0,0],"split_type":[0,0,0],"sum_hessian":[2.2967513E0,1.211327E0,1.0854242E0],"tree_param":{"num_deleted":"0","num_feature":"41","num_nodes":"3","size_leaf_vector":"1"}},{"base_weights":[-5.654812E-4,2.0908507E-2,-2.4084521E-2],"categories":[],"categories_nodes":[],"categories_segments":[],"categories_sizes":[],"default_left":[0,0,0],"id":95,"left_children":[1,-1,-1],"loss_changes":[2.4012048E-2,0E0,0E0],"parents":[2147483647,0,0],"right_children":[2,-1,-1],"split_conditions":[-7.436015E-2,2.0908507E-2,-2.4084521E-2],"split_indices":[15,0,0],"split_type":[0,0,0],"sum_hessian":[2.2881854E0,1.2830442E0,1.0051413E0],"tree_param":{"num_deleted":"0","num_feature":"41","num_nodes":"3","size_leaf_vector":"1"}},{"base_weights":[-1.364405E-3,2.0594118E-2,-2.3288323E-2],"categories":[],"categories_nodes":[],"categories_segments":[],"categories_sizes":[],"default_left":[0,0,0],"id":96,"left_children":[1,-1,-1],"loss_changes":[2.2855619E-2,0E0,0E0],"parents":[2147483647,0,0],"right_children":[2,-1,-1],"split_conditions":[-2.3714791E-1,2.0594118E-2,-2.3288323E-2],"split_indices":[21,0,0],"split_type":[0,0,0],"sum_hessian":[2.2825794E0,1.2421374E0,1.040442E0],"tree_param":{"num_deleted":"0","num_feature":"41","num_nodes":"3","size_leaf_vector":"1"}},{"base_weights":[-1.7780985E-3,-2.2341123E-2,2.1460027E-2],"categories":[],"categories_nodes":[],"categories_segments":[],"categories_sizes":[],"default_left":[0,0,0],"id":97,"left_children":[1,-1,-1],"loss_changes":[2.2794835E-2,0E0,0E0],"parents":[2147483647,0,0],"right_children":[2,-1,-1],"split_conditions":[-7.7238575E-2,-2.2341123E-2,2.1460027E-2],"split_indices":[16,0,0],"split_type":[0,0,0],"sum_hessian":[2.2777462E0,1.1357657E0,1.1419804E0],"tree_param":{"num_deleted":"0","num_feature":"41","num_nodes":"3","size_leaf_vector":"1"}},{"base_weights":[-1.5148723E-3,2.1105401E-2,-2.2039542E-2],"categories":[],"categories_nodes":[],"categories_segments":[],"categories_sizes":[],"default_left":[0,0,0],"id":98,"left_children":[1,-1,-1],"loss_changes":[2.2082116E-2,0E0,0E0],"parents":[2147483647,0,0],"right_children":[2,-1,-1],"split_conditions":[-3.977148E-2,2.1105401E-2,-2.2039542E-2],"split_indices":[19,0,0],"split_type":[0,0,0],"sum_hessian":[2.2710156E0,1.1472894E0,1.1237261E0],"tree_param":{"num_deleted":"0","num_feature":"41","num_nodes":"3","size_leaf_vector":"1"}},{"base_weights":[-1.3467901E-3,2.1285692E-2,-2.1201173E-2],"categories":[],"categories_nodes":[],"categories_segments":[],"categories_sizes":[],"default_left":[0,0,0],"id":99,"left_children":[1,-1,-1],"loss_changes":[2.138349E-2,0E0,0E0],"parents":[2147483647,0,0],"right_children":[2,-1,-1],"split_conditions":[6.697375E-2,2.1285692E-2,-2.1201173E-2],"split_indices":[0,0,0],"split_type":[0,0,0],"sum_hessian":[2.265981E0,1.0976889E0,1.168292E0],"tree_param":{"num_deleted":"0","num_feature":"41","num_nodes":"3","size_leaf_vector":"1"}}]},"name":"gbtree"},"learner_model_param":{"base_score":"6.7178714E-1","boost_from_average":"1","num_class":"0","num_feature":"41","num_target":"1"},"objective":{"name":"binary:logistic","reg_loss_param":{"scale_pos_weight":"1"}}},"version":[2,1,1]}